Language model created by QuickLM on Tue Aug 30 16:56:27 EDT 2016
Copyright (c) 1996-2010 Carnegie Mellon University and Alexander I. Rudnicky

The model is in standard ARPA format, designed by Doug Paul while he was at MITRE.

The code that was used to produce this language model is available in Open Source.
Please visit http://www.speech.cs.cmu.edu/tools/ for more information

The (fixed) discount mass is 0.5. The backoffs are computed using the ratio method.
This model based on a corpus of 16 sentences and 23 words

\data\
ngram 1=23
ngram 2=37
ngram 3=22

\1-grams:
-0.8293 </s> -0.3010
-0.8293 <s> -0.2266
-2.0334 ANYTHING -0.2314
-2.0334 ARE -0.2929
-2.0334 BIG -0.2970
-2.0334 CHANGE -0.2970
-2.0334 ENGLISH -0.2314
-2.0334 FOR -0.2314
-2.0334 FRENCH -0.2314
-2.0334 FUCK -0.2314
-2.0334 GUY -0.2314
-2.0334 HELLO -0.2314
-2.0334 HOW -0.2970
-2.0334 MARCEL -0.2314
-2.0334 ME -0.2314
-2.0334 MODE -0.2314
-2.0334 REPEAT -0.2314
-2.0334 SHUT -0.2970
-2.0334 SPEAK -0.2314
-2.0334 STOP -0.2314
-2.0334 TELL -0.2970
-2.0334 UP -0.2314
-1.7324 YOU -0.2314

\2-grams:
-1.5051 <s> ANYTHING 0.0000
-1.5051 <s> BIG 0.0000
-1.5051 <s> CHANGE 0.0000
-1.5051 <s> ENGLISH 0.0000
-1.5051 <s> FOR 0.0000
-1.5051 <s> FRENCH 0.0000
-1.5051 <s> FUCK 0.0000
-1.5051 <s> HELLO 0.0000
-1.5051 <s> HOW 0.0000
-1.5051 <s> MARCEL 0.0000
-1.5051 <s> REPEAT 0.0000
-1.5051 <s> SHUT 0.0000
-1.5051 <s> SPEAK 0.0000
-1.5051 <s> STOP 0.0000
-1.5051 <s> TELL 0.0000
-1.5051 <s> YOU 0.0000
-0.3010 ANYTHING </s> -0.3010
-0.3010 ARE YOU 0.0000
-0.3010 BIG GUY 0.0000
-0.3010 CHANGE MODE 0.0000
-0.3010 ENGLISH </s> -0.3010
-0.3010 FOR </s> -0.3010
-0.3010 FRENCH </s> -0.3010
-0.3010 FUCK </s> -0.3010
-0.3010 GUY </s> -0.3010
-0.3010 HELLO </s> -0.3010
-0.3010 HOW ARE 0.0000
-0.3010 MARCEL </s> -0.3010
-0.3010 ME </s> -0.3010
-0.3010 MODE </s> -0.3010
-0.3010 REPEAT </s> -0.3010
-0.3010 SHUT UP 0.0000
-0.3010 SPEAK </s> -0.3010
-0.3010 STOP </s> -0.3010
-0.3010 TELL ME 0.0000
-0.3010 UP </s> -0.3010
-0.3010 YOU </s> -0.3010

\3-grams:
-0.3010 <s> ANYTHING </s>
-0.3010 <s> BIG GUY
-0.3010 <s> CHANGE MODE
-0.3010 <s> ENGLISH </s>
-0.3010 <s> FOR </s>
-0.3010 <s> FRENCH </s>
-0.3010 <s> FUCK </s>
-0.3010 <s> HELLO </s>
-0.3010 <s> HOW ARE
-0.3010 <s> MARCEL </s>
-0.3010 <s> REPEAT </s>
-0.3010 <s> SHUT UP
-0.3010 <s> SPEAK </s>
-0.3010 <s> STOP </s>
-0.3010 <s> TELL ME
-0.3010 <s> YOU </s>
-0.3010 ARE YOU </s>
-0.3010 BIG GUY </s>
-0.3010 CHANGE MODE </s>
-0.3010 HOW ARE YOU
-0.3010 SHUT UP </s>
-0.3010 TELL ME </s>

\end\
