Language model created by QuickLM on Wed Aug 31 18:17:31 EDT 2016
Copyright (c) 1996-2010 Carnegie Mellon University and Alexander I. Rudnicky

The model is in standard ARPA format, designed by Doug Paul while he was at MITRE.

The code that was used to produce this language model is available in Open Source.
Please visit http://www.speech.cs.cmu.edu/tools/ for more information

The (fixed) discount mass is 0.5. The backoffs are computed using the ratio method.
This model based on a corpus of 20 sentences and 26 words

\data\
ngram 1=26
ngram 2=44
ngram 3=28

\1-grams:
-0.8325 </s> -0.3010
-0.8325 <s> -0.2244
-1.6564 ANGLAIS -0.2319
-2.1335 AUREVOIR -0.2319
-2.1335 BATARD -0.2319
-2.1335 BIEN -0.2978
-2.1335 BONJOUR -0.2319
-2.1335 CHANGE -0.2978
-2.1335 CONNARD -0.2319
-2.1335 DE -0.2978
-2.1335 DIS -0.2978
-2.1335 GUEULE -0.2319
-2.1335 MARCEL -0.2319
-2.1335 MODE -0.2319
-2.1335 MOI -0.2319
-2.1335 NON -0.2319
-2.1335 OUI -0.2319
-1.8325 PARLER -0.2206
-1.8325 PARLONS -0.2206
-2.1335 PENDANT -0.2319
-2.1335 REPETE -0.2319
-2.1335 STOP -0.2319
-2.1335 SUR -0.2319
-2.1335 TA -0.2978
-2.1335 TAIS -0.2978
-2.1335 TOI -0.2319

\2-grams:
-1.6021 <s> ANGLAIS 0.0000
-1.6021 <s> AUREVOIR 0.0000
-1.6021 <s> BATARD 0.0000
-1.6021 <s> BIEN 0.0000
-1.6021 <s> BONJOUR 0.0000
-1.6021 <s> CHANGE 0.0000
-1.6021 <s> CONNARD 0.0000
-1.6021 <s> DIS 0.0000
-1.6021 <s> MARCEL 0.0000
-1.6021 <s> NON 0.0000
-1.6021 <s> OUI 0.0000
-1.3010 <s> PARLER 0.0000
-1.3010 <s> PARLONS 0.0000
-1.6021 <s> PENDANT 0.0000
-1.6021 <s> REPETE 0.0000
-1.6021 <s> STOP 0.0000
-1.6021 <s> TA 0.0000
-1.6021 <s> TAIS 0.0000
-0.3010 ANGLAIS </s> -0.3010
-0.3010 AUREVOIR </s> -0.3010
-0.3010 BATARD </s> -0.3010
-0.3010 BIEN SUR 0.0000
-0.3010 BONJOUR </s> -0.3010
-0.3010 CHANGE DE 0.0000
-0.3010 CONNARD </s> -0.3010
-0.3010 DE MODE 0.0000
-0.3010 DIS MOI 0.0000
-0.3010 GUEULE </s> -0.3010
-0.3010 MARCEL </s> -0.3010
-0.3010 MODE </s> -0.3010
-0.3010 MOI </s> -0.3010
-0.3010 NON </s> -0.3010
-0.3010 OUI </s> -0.3010
-0.6021 PARLER </s> -0.3010
-0.6021 PARLER ANGLAIS 0.0000
-0.6021 PARLONS </s> -0.3010
-0.6021 PARLONS ANGLAIS 0.0000
-0.3010 PENDANT </s> -0.3010
-0.3010 REPETE </s> -0.3010
-0.3010 STOP </s> -0.3010
-0.3010 SUR </s> -0.3010
-0.3010 TA GUEULE 0.0000
-0.3010 TAIS TOI 0.0000
-0.3010 TOI </s> -0.3010

\3-grams:
-0.3010 <s> ANGLAIS </s>
-0.3010 <s> AUREVOIR </s>
-0.3010 <s> BATARD </s>
-0.3010 <s> BIEN SUR
-0.3010 <s> BONJOUR </s>
-0.3010 <s> CHANGE DE
-0.3010 <s> CONNARD </s>
-0.3010 <s> DIS MOI
-0.3010 <s> MARCEL </s>
-0.3010 <s> NON </s>
-0.3010 <s> OUI </s>
-0.6021 <s> PARLER </s>
-0.6021 <s> PARLER ANGLAIS
-0.6021 <s> PARLONS </s>
-0.6021 <s> PARLONS ANGLAIS
-0.3010 <s> PENDANT </s>
-0.3010 <s> REPETE </s>
-0.3010 <s> STOP </s>
-0.3010 <s> TA GUEULE
-0.3010 <s> TAIS TOI
-0.3010 BIEN SUR </s>
-0.3010 CHANGE DE MODE
-0.3010 DE MODE </s>
-0.3010 DIS MOI </s>
-0.3010 PARLER ANGLAIS </s>
-0.3010 PARLONS ANGLAIS </s>
-0.3010 TA GUEULE </s>
-0.3010 TAIS TOI </s>

\end\
