Language model created by QuickLM on Mon Aug 29 17:55:45 EDT 2016
Copyright (c) 1996-2010 Carnegie Mellon University and Alexander I. Rudnicky

The model is in standard ARPA format, designed by Doug Paul while he was at MITRE.

The code that was used to produce this language model is available in Open Source.
Please visit http://www.speech.cs.cmu.edu/tools/ for more information

The (fixed) discount mass is 0.5. The backoffs are computed using the ratio method.
This model based on a corpus of 5 sentences and 11 words

\data\
ngram 1=11
ngram 2=14
ngram 3=12

\1-grams:
-0.9445 </s> -0.3010
-0.9445 <s> -0.2258
-1.6435 ARE -0.2910
-1.6435 BIG -0.2910
-1.6435 FRENCH -0.2486
-1.6435 GUY -0.2486
-1.3424 HELLO -0.2596
-1.6435 HOW -0.2910
-1.1663 MARCEL -0.2486
-1.6435 SPEAK -0.2910
-1.6435 YOU -0.2704

\2-grams:
-0.6990 <s> HELLO 0.0000
-1.0000 <s> HOW 0.0000
-1.0000 <s> MARCEL 0.0000
-1.0000 <s> SPEAK 0.0000
-0.3010 ARE YOU 0.0000
-0.3010 BIG GUY 0.0000
-0.3010 FRENCH </s> -0.3010
-0.3010 GUY </s> -0.3010
-0.6021 HELLO BIG 0.0000
-0.6021 HELLO MARCEL 0.0000
-0.3010 HOW ARE 0.0000
-0.3010 MARCEL </s> -0.3010
-0.3010 SPEAK FRENCH 0.0000
-0.3010 YOU MARCEL 0.0000

\3-grams:
-0.6021 <s> HELLO BIG
-0.6021 <s> HELLO MARCEL
-0.3010 <s> HOW ARE
-0.3010 <s> MARCEL </s>
-0.3010 <s> SPEAK FRENCH
-0.3010 ARE YOU MARCEL
-0.3010 BIG GUY </s>
-0.3010 HELLO BIG GUY
-0.3010 HELLO MARCEL </s>
-0.3010 HOW ARE YOU
-0.3010 SPEAK FRENCH </s>
-0.3010 YOU MARCEL </s>

\end\
