Language model created by QuickLM on Mon Aug 29 17:55:26 EDT 2016
Copyright (c) 1996-2010 Carnegie Mellon University and Alexander I. Rudnicky

The model is in standard ARPA format, designed by Doug Paul while he was at MITRE.

The code that was used to produce this language model is available in Open Source.
Please visit http://www.speech.cs.cmu.edu/tools/ for more information

The (fixed) discount mass is 0.5. The backoffs are computed using the ratio method.
This model based on a corpus of 8 sentences and 11 words

\data\
ngram 1=11
ngram 2=17
ngram 3=9

\1-grams:
-0.7959 </s> -0.3010
-0.7959 <s> -0.2253
-1.6990 ANGLAIS -0.2253
-1.6990 AUREVOIR -0.2253
-1.6990 BIEN -0.2923
-1.6990 BONJOUR -0.2253
-1.6990 CONNARD -0.2253
-1.6990 NON -0.2253
-1.6990 OUI -0.2253
-1.6990 PARLONS -0.2253
-1.6990 SûR -0.2253

\2-grams:
-1.2041 <s> ANGLAIS 0.0000
-1.2041 <s> AUREVOIR 0.0000
-1.2041 <s> BIEN 0.0000
-1.2041 <s> BONJOUR 0.0000
-1.2041 <s> CONNARD 0.0000
-1.2041 <s> NON 0.0000
-1.2041 <s> OUI 0.0000
-1.2041 <s> PARLONS 0.0000
-0.3010 ANGLAIS </s> -0.3010
-0.3010 AUREVOIR </s> -0.3010
-0.3010 BIEN SûR 0.0000
-0.3010 BONJOUR </s> -0.3010
-0.3010 CONNARD </s> -0.3010
-0.3010 NON </s> -0.3010
-0.3010 OUI </s> -0.3010
-0.3010 PARLONS </s> -0.3010
-0.3010 SûR </s> -0.3010

\3-grams:
-0.3010 <s> ANGLAIS </s>
-0.3010 <s> AUREVOIR </s>
-0.3010 <s> BIEN SûR
-0.3010 <s> BONJOUR </s>
-0.3010 <s> CONNARD </s>
-0.3010 <s> NON </s>
-0.3010 <s> OUI </s>
-0.3010 <s> PARLONS </s>
-0.3010 BIEN SûR </s>

\end\
